Language model created by QuickLM on Sat Nov  8 02:21:22 EST 2014
Copyright (c) 1996-2010 Carnegie Mellon University and Alexander I. Rudnicky

The model is in standard ARPA format, designed by Doug Paul while he was at MITRE.

The code that was used to produce this language model is available in Open Source.
Please visit http://www.speech.cs.cmu.edu/tools/ for more information

The (fixed) discount mass is 0.5. The backoffs are computed using the ratio method.
This model based on a corpus of 9 sentences and 11 words

\data\
ngram 1=11
ngram 2=18
ngram 3=9

\1-grams:
-0.7782 </s> -0.3010
-0.7782 <s> -0.2218
-1.7324 你 -0.2218
-1.7324 你在哪里 -0.2218
-1.7324 哪 -0.2218
-1.7324 在 -0.2218
-1.7324 机 -0.2218
-1.7324 逼 -0.2218
-1.7324 逼逼机 -0.2218
-1.7324 里 -0.2218
-1.7324 ﻿逼 -0.2218

\2-grams:
-1.2553 <s> 你 0.0000
-1.2553 <s> 你在哪里 0.0000
-1.2553 <s> 哪 0.0000
-1.2553 <s> 在 0.0000
-1.2553 <s> 机 0.0000
-1.2553 <s> 逼 0.0000
-1.2553 <s> 逼逼机 0.0000
-1.2553 <s> 里 0.0000
-1.2553 <s> ﻿逼 0.0000
-0.3010 你 </s> -0.3010
-0.3010 你在哪里 </s> -0.3010
-0.3010 哪 </s> -0.3010
-0.3010 在 </s> -0.3010
-0.3010 机 </s> -0.3010
-0.3010 逼 </s> -0.3010
-0.3010 逼逼机 </s> -0.3010
-0.3010 里 </s> -0.3010
-0.3010 ﻿逼 </s> -0.3010

\3-grams:
-0.3010 <s> 你 </s>
-0.3010 <s> 你在哪里 </s>
-0.3010 <s> 哪 </s>
-0.3010 <s> 在 </s>
-0.3010 <s> 机 </s>
-0.3010 <s> 逼 </s>
-0.3010 <s> 逼逼机 </s>
-0.3010 <s> 里 </s>
-0.3010 <s> ﻿逼 </s>

\end\
