Language model created by QuickLM on Mon Nov 17 23:01:40 EST 2014
Copyright (c) 1996-2010 Carnegie Mellon University and Alexander I. Rudnicky

The model is in standard ARPA format, designed by Doug Paul while he was at MITRE.

The code that was used to produce this language model is available in Open Source.
Please visit http://www.speech.cs.cmu.edu/tools/ for more information

The (fixed) discount mass is 0.5. The backoffs are computed using the ratio method.
This model based on a corpus of 29 sentences and 31 words

\data\
ngram 1=31
ngram 2=58
ngram 3=29

\1-grams:
-0.7782 </s> -0.3010
-0.7782 <s> -0.2218
-2.2405 万万没想到 -0.2218
-2.2405 两条毛腿肩上扛 -0.2218
-2.2405 中二病 -0.2218
-2.2405 中间有只米老鼠 -0.2218
-2.2405 人生巅峰 -0.2218
-2.2405 便知真假 -0.2218
-2.2405 北京烤鸭 -0.2218
-2.2405 升职加薪 -0.2218
-2.2405 反清复明 -0.2218
-2.2405 只要锄头挥得好 -0.2218
-2.2405 右白虎 -0.2218
-2.2405 吃什么 -0.2218
-2.2405 天王盖地虎 -0.2218
-2.2405 安静的美男子 -0.2218
-2.2405 宝塔镇河妖 -0.2218
-2.2405 小鸡炖蘑菇 -0.2218
-2.2405 左青龙 -0.2218
-2.2405 没有墙角挖不倒 -0.2218
-2.2405 狂霸酷拽叼屌炸天 -0.2218
-2.2405 白富美 -0.2218
-2.2405 看你有点彪 -0.2218
-2.2405 芝麻开门 -0.2218
-2.2405 荆轲刺秦王 -0.2218
-2.2405 近可欺身压萝莉 -0.2218
-2.2405 退可提臀迎众基 -0.2218
-2.2405 高富帅 -0.2218
-2.2405 高端大气上档次 -0.2218
-2.2405 龙门飞甲 -0.2218
-2.2405 ﻿逼逼机 -0.2218

\2-grams:
-1.7634 <s> 万万没想到 0.0000
-1.7634 <s> 两条毛腿肩上扛 0.0000
-1.7634 <s> 中二病 0.0000
-1.7634 <s> 中间有只米老鼠 0.0000
-1.7634 <s> 人生巅峰 0.0000
-1.7634 <s> 便知真假 0.0000
-1.7634 <s> 北京烤鸭 0.0000
-1.7634 <s> 升职加薪 0.0000
-1.7634 <s> 反清复明 0.0000
-1.7634 <s> 只要锄头挥得好 0.0000
-1.7634 <s> 右白虎 0.0000
-1.7634 <s> 吃什么 0.0000
-1.7634 <s> 天王盖地虎 0.0000
-1.7634 <s> 安静的美男子 0.0000
-1.7634 <s> 宝塔镇河妖 0.0000
-1.7634 <s> 小鸡炖蘑菇 0.0000
-1.7634 <s> 左青龙 0.0000
-1.7634 <s> 没有墙角挖不倒 0.0000
-1.7634 <s> 狂霸酷拽叼屌炸天 0.0000
-1.7634 <s> 白富美 0.0000
-1.7634 <s> 看你有点彪 0.0000
-1.7634 <s> 芝麻开门 0.0000
-1.7634 <s> 荆轲刺秦王 0.0000
-1.7634 <s> 近可欺身压萝莉 0.0000
-1.7634 <s> 退可提臀迎众基 0.0000
-1.7634 <s> 高富帅 0.0000
-1.7634 <s> 高端大气上档次 0.0000
-1.7634 <s> 龙门飞甲 0.0000
-1.7634 <s> ﻿逼逼机 0.0000
-0.3010 万万没想到 </s> -0.3010
-0.3010 两条毛腿肩上扛 </s> -0.3010
-0.3010 中二病 </s> -0.3010
-0.3010 中间有只米老鼠 </s> -0.3010
-0.3010 人生巅峰 </s> -0.3010
-0.3010 便知真假 </s> -0.3010
-0.3010 北京烤鸭 </s> -0.3010
-0.3010 升职加薪 </s> -0.3010
-0.3010 反清复明 </s> -0.3010
-0.3010 只要锄头挥得好 </s> -0.3010
-0.3010 右白虎 </s> -0.3010
-0.3010 吃什么 </s> -0.3010
-0.3010 天王盖地虎 </s> -0.3010
-0.3010 安静的美男子 </s> -0.3010
-0.3010 宝塔镇河妖 </s> -0.3010
-0.3010 小鸡炖蘑菇 </s> -0.3010
-0.3010 左青龙 </s> -0.3010
-0.3010 没有墙角挖不倒 </s> -0.3010
-0.3010 狂霸酷拽叼屌炸天 </s> -0.3010
-0.3010 白富美 </s> -0.3010
-0.3010 看你有点彪 </s> -0.3010
-0.3010 芝麻开门 </s> -0.3010
-0.3010 荆轲刺秦王 </s> -0.3010
-0.3010 近可欺身压萝莉 </s> -0.3010
-0.3010 退可提臀迎众基 </s> -0.3010
-0.3010 高富帅 </s> -0.3010
-0.3010 高端大气上档次 </s> -0.3010
-0.3010 龙门飞甲 </s> -0.3010
-0.3010 ﻿逼逼机 </s> -0.3010

\3-grams:
-0.3010 <s> 万万没想到 </s>
-0.3010 <s> 两条毛腿肩上扛 </s>
-0.3010 <s> 中二病 </s>
-0.3010 <s> 中间有只米老鼠 </s>
-0.3010 <s> 人生巅峰 </s>
-0.3010 <s> 便知真假 </s>
-0.3010 <s> 北京烤鸭 </s>
-0.3010 <s> 升职加薪 </s>
-0.3010 <s> 反清复明 </s>
-0.3010 <s> 只要锄头挥得好 </s>
-0.3010 <s> 右白虎 </s>
-0.3010 <s> 吃什么 </s>
-0.3010 <s> 天王盖地虎 </s>
-0.3010 <s> 安静的美男子 </s>
-0.3010 <s> 宝塔镇河妖 </s>
-0.3010 <s> 小鸡炖蘑菇 </s>
-0.3010 <s> 左青龙 </s>
-0.3010 <s> 没有墙角挖不倒 </s>
-0.3010 <s> 狂霸酷拽叼屌炸天 </s>
-0.3010 <s> 白富美 </s>
-0.3010 <s> 看你有点彪 </s>
-0.3010 <s> 芝麻开门 </s>
-0.3010 <s> 荆轲刺秦王 </s>
-0.3010 <s> 近可欺身压萝莉 </s>
-0.3010 <s> 退可提臀迎众基 </s>
-0.3010 <s> 高富帅 </s>
-0.3010 <s> 高端大气上档次 </s>
-0.3010 <s> 龙门飞甲 </s>
-0.3010 <s> ﻿逼逼机 </s>

\end\
